digraph Tree {
node [shape=box, style="filled, rounded", color="black", fontname=helvetica] ;
edge [fontname=helvetica] ;
0 [label="sepal length (cm) <= 5.45\ngini = 0.66\nsamples = 90\nvalue = [48, 56, 46]\nclass = versicolor", fillcolor="#effdf5"] ;
1 [label="petal width (cm) <= 0.7\ngini = 0.15\nsamples = 32\nvalue = [44, 4, 0]\nclass = setosa", fillcolor="#e78c4b"] ;
0 -> 1 [labeldistance=2.5, labelangle=45, headlabel="True"] ;
2 [label="gini = 0.0\nsamples = 28\nvalue = [44, 0, 0]\nclass = setosa", fillcolor="#e58139"] ;
1 -> 2 ;
3 [label="gini = 0.0\nsamples = 4\nvalue = [0, 4, 0]\nclass = versicolor", fillcolor="#39e581"] ;
1 -> 3 ;
4 [label="petal width (cm) <= 1.75\ngini = 0.54\nsamples = 58\nvalue = [4, 52, 46]\nclass = versicolor", fillcolor="#eafcf2"] ;
0 -> 4 [labeldistance=2.5, labelangle=-45, headlabel="False"] ;
5 [label="petal length (cm) <= 5.05\ngini = 0.31\nsamples = 35\nvalue = [4, 50, 7]\nclass = versicolor", fillcolor="#61ea9b"] ;
4 -> 5 ;
6 [label="petal width (cm) <= 0.7\ngini = 0.14\nsamples = 31\nvalue = [4, 47, 0]\nclass = versicolor", fillcolor="#4ae78c"] ;
5 -> 6 ;
7 [label="gini = 0.0\nsamples = 3\nvalue = [4, 0, 0]\nclass = setosa", fillcolor="#e58139"] ;
6 -> 7 ;
8 [label="gini = 0.0\nsamples = 28\nvalue = [0, 47, 0]\nclass = versicolor", fillcolor="#39e581"] ;
6 -> 8 ;
9 [label="petal width (cm) <= 1.55\ngini = 0.42\nsamples = 4\nvalue = [0, 3, 7]\nclass = virginica", fillcolor="#b78ef0"] ;
5 -> 9 ;
10 [label="gini = 0.0\nsamples = 2\nvalue = [0, 0, 6]\nclass = virginica", fillcolor="#8139e5"] ;
9 -> 10 ;
11 [label="petal length (cm) <= 5.45\ngini = 0.38\nsamples = 2\nvalue = [0, 3, 1]\nclass = versicolor", fillcolor="#7beeab"] ;
9 -> 11 ;
12 [label="gini = 0.0\nsamples = 1\nvalue = [0, 3, 0]\nclass = versicolor", fillcolor="#39e581"] ;
11 -> 12 ;
13 [label="gini = 0.0\nsamples = 1\nvalue = [0, 0, 1]\nclass = virginica", fillcolor="#8139e5"] ;
11 -> 13 ;
14 [label="sepal length (cm) <= 6.05\ngini = 0.09\nsamples = 23\nvalue = [0, 2, 39]\nclass = virginica", fillcolor="#8743e6"] ;
4 -> 14 ;
15 [label="sepal width (cm) <= 3.1\ngini = 0.35\nsamples = 5\nvalue = [0, 2, 7]\nclass = virginica", fillcolor="#a572ec"] ;
14 -> 15 ;
16 [label="gini = 0.0\nsamples = 4\nvalue = [0, 0, 7]\nclass = virginica", fillcolor="#8139e5"] ;
15 -> 16 ;
17 [label="gini = 0.0\nsamples = 1\nvalue = [0, 2, 0]\nclass = versicolor", fillcolor="#39e581"] ;
15 -> 17 ;
18 [label="gini = 0.0\nsamples = 18\nvalue = [0, 0, 32]\nclass = virginica", fillcolor="#8139e5"] ;
14 -> 18 ;
}